FANN_FLO_2.0
num_layers=3
learning_rate=0.700000
connection_rate=1.000000
shortcut_connections=0
learning_momentum=0.000000
training_algorithm=2
train_error_function=1
train_stop_function=1
cascade_output_change_fraction=0.010000
quickprop_decay=-0.000100
quickprop_mu=1.750000
rprop_increase_factor=1.200000
rprop_decrease_factor=0.500000
rprop_delta_min=0.000000
rprop_delta_max=50.000000
rprop_delta_zero=0.500000
cascade_output_stagnation_epochs=12
cascade_candidate_change_fraction=0.010000
cascade_candidate_stagnation_epochs=12
cascade_max_out_epochs=150
cascade_max_cand_epochs=150
cascade_num_candidate_groups=2
bit_fail_limit=9.99999977648258209229e-03
cascade_candidate_limit=1.00000000000000000000e+03
cascade_weight_multiplier=4.00000005960464477539e-01
cascade_activation_functions_count=6
cascade_activation_functions=3 5 7 8 10 11 
cascade_activation_steepnesses_count=4
cascade_activation_steepnesses=2.50000000000000000000e-01 5.00000000000000000000e-01 7.50000000000000000000e-01 1.00000000000000000000e+00 
layer_sizes=4 14 9 
neurons (num_inputs, activation_function, activation_steepness)=(0, 0, 0.00000000000000000000e+00) (0, 0, 0.00000000000000000000e+00) (0, 0, 0.00000000000000000000e+00) (0, 0, 0.00000000000000000000e+00) (4, 5, 9.99999977648258209229e-03) (4, 5, 9.99999977648258209229e-03) (4, 5, 9.99999977648258209229e-03) (4, 5, 9.99999977648258209229e-03) (4, 5, 9.99999977648258209229e-03) (4, 5, 9.99999977648258209229e-03) (4, 5, 9.99999977648258209229e-03) (4, 5, 9.99999977648258209229e-03) (4, 5, 9.99999977648258209229e-03) (4, 5, 9.99999977648258209229e-03) (4, 5, 9.99999977648258209229e-03) (4, 5, 9.99999977648258209229e-03) (4, 5, 9.99999977648258209229e-03) (0, 5, 9.99999977648258209229e-03) (14, 5, 9.99999977648258209229e-03) (14, 5, 9.99999977648258209229e-03) (14, 5, 9.99999977648258209229e-03) (14, 5, 9.99999977648258209229e-03) (14, 5, 9.99999977648258209229e-03) (14, 5, 9.99999977648258209229e-03) (14, 5, 9.99999977648258209229e-03) (14, 5, 9.99999977648258209229e-03) (0, 5, 9.99999977648258209229e-03) 
connections (connected_to_neuron, weight)=(0, 2.70399597167968750000e+02) (1, -4.44313690185546875000e+02) (2, -8.68617431640625000000e+02) (3, -1.40037170410156250000e+02) (0, 1.46851562500000000000e+03) (1, 2.01006347656250000000e+02) (2, -1.38612634277343750000e+03) (3, -1.05073754882812500000e+03) (0, 2.08177062988281250000e+02) (1, -2.30774340820312500000e+03) (2, -1.08439685058593750000e+03) (3, 5.27297180175781250000e+02) (0, -1.10964453125000000000e+03) (1, 1.27788586425781250000e+03) (2, 8.91437304687500000000e+03) (3, 7.99954589843750000000e+02) (0, -2.37286758422851562500e+02) (1, 7.83009399414062500000e+02) (2, 4.38296728515625000000e+03) (3, -7.79600677490234375000e+01) (0, 5.61559753417968750000e+02) (1, -5.89435241699218750000e+02) (2, 3.17694677734375000000e+03) (3, -3.65419921875000000000e+02) (0, -3.58276885986328125000e+02) (1, 2.05954101562500000000e+02) (2, 1.08522089843750000000e+04) (3, 3.69640884399414062500e+01) (0, -3.69403228759765625000e+02) (1, -2.47526580810546875000e+02) (2, 9.64338256835937500000e+02) (3, 2.71040100097656250000e+02) (0, -3.83432098388671875000e+02) (1, -9.21549621582031250000e+02) (2, 7.99635803222656250000e+02) (3, 4.21100646972656250000e+02) (0, -4.16846038818359375000e+02) (1, -8.34871704101562500000e+02) (2, 4.21003631591796875000e+02) (3, 4.09027496337890625000e+02) (0, 4.63547912597656250000e+02) (1, -2.22840484619140625000e+02) (2, -1.28570605468750000000e+04) (3, -9.28468551635742187500e+01) (0, 1.95008996582031250000e+03) (1, 7.79310363769531250000e+02) (2, -1.01332617187500000000e+03) (3, -1.60014636230468750000e+03) (0, 2.54493118286132812500e+02) (1, -1.27249694824218750000e+03) (2, 5.78566406250000000000e+03) (3, -9.13879165649414062500e+01) (4, 5.39540171623229980469e-01) (5, 2.45738670229911804199e-01) (6, -7.49340429902076721191e-02) (7, 6.68643116950988769531e-02) (8, -3.19321811199188232422e-01) (9, -2.77537822723388671875e-01) (10, 5.33324813842773437500e+00) (11, 5.90207695960998535156e-01) (12, -1.20333516597747802734e+00) (13, 2.04943990707397460938e+00) (14, 4.81736421585083007812e+00) (15, -1.97309441864490509033e-02) (16, -7.83820375800132751465e-02) (17, 1.44235002994537353516e+00) (4, -1.08339454650878906250e+02) (5, 3.29415588378906250000e+02) (6, 1.34366928100585937500e+02) (7, 2.01761566162109375000e+02) (8, 4.82605072021484375000e+02) (9, 5.06235778808593750000e+02) (10, 2.00497131347656250000e+02) (11, 1.30576675415039062500e+02) (12, 2.30900897979736328125e+01) (13, -2.38382949829101562500e+01) (14, 2.89442230224609375000e+02) (15, 3.52353637695312500000e+02) (16, -2.10620594024658203125e+01) (17, 6.50327453613281250000e+02) (4, 5.61230838298797607422e-01) (5, 2.46359497308731079102e-01) (6, -7.71849080920219421387e-02) (7, 7.30268955230712890625e-02) (8, -3.02373617887496948242e-01) (9, -2.70909696817398071289e-01) (10, 5.28812551498413085938e+00) (11, 6.00974619388580322266e-01) (12, -1.26720273494720458984e+00) (13, 2.17155909538269042969e+00) (14, 4.77782583236694335938e+00) (15, -1.31667386740446090698e-02) (16, -7.67320841550827026367e-02) (17, 1.49849045276641845703e+00) (4, 1.45631057739257812500e+02) (5, 2.29639694213867187500e+02) (6, 2.33475055694580078125e+01) (7, 1.57571163177490234375e+01) (8, 1.07599021911621093750e+02) (9, -1.46272979736328125000e+02) (10, 1.60232963562011718750e+01) (11, 3.03563262939453125000e+02) (12, -8.11061584472656250000e+02) (13, 1.38833178710937500000e+03) (14, 7.59080581665039062500e+01) (15, -1.54189971923828125000e+02) (16, 6.41394348144531250000e+01) (17, 8.85866943359375000000e+02) (4, 2.82946563720703125000e+02) (5, -2.35987911224365234375e+01) (6, 2.78082008361816406250e+01) (7, -1.39672317504882812500e+02) (8, 1.21729385375976562500e+02) (9, -8.76515808105468750000e+01) (10, -1.02556655883789062500e+02) (11, 3.67083648681640625000e+02) (12, -4.68929557800292968750e+01) (13, -1.95572326660156250000e+02) (14, -1.50377975463867187500e+02) (15, 1.17242187500000000000e+02) (16, -1.05635871887207031250e+02) (17, 2.03081527709960937500e+02) (4, 4.18785919189453125000e+02) (5, -1.07729156494140625000e+02) (6, -1.09601203918457031250e+02) (7, 3.71004333496093750000e+02) (8, 1.80266220092773437500e+02) (9, 3.00576141357421875000e+02) (10, 1.54999316406250000000e+03) (11, 6.94001235961914062500e+01) (12, -2.48883880615234375000e+02) (13, 5.34565246582031250000e+02) (14, 1.78483154296875000000e+03) (15, 1.68852188110351562500e+02) (16, -7.88684463500976562500e+01) (17, 1.02757705688476562500e+02) (4, 2.66044738769531250000e+02) (5, -4.06149719238281250000e+02) (6, 1.63204936981201171875e+01) (7, 9.31999664306640625000e+01) (8, 2.96679290771484375000e+02) (9, 7.93758773803710937500e+01) (10, -2.00009179687500000000e+03) (11, 2.26397598266601562500e+02) (12, -7.00036560058593750000e+02) (13, 1.48813549804687500000e+03) (14, -1.78829943847656250000e+03) (15, 4.78480346679687500000e+02) (16, -3.77999534606933593750e+01) (17, 8.20195129394531250000e+02) (4, -2.20012435913085937500e+02) (5, -1.33849694824218750000e+03) (6, 5.61816711425781250000e+01) (7, 5.42412281036376953125e+00) (8, -5.41932535171508789062e+00) (9, 6.09868698120117187500e+01) (10, 1.40036880493164062500e+02) (11, -4.70885803222656250000e+02) (12, 4.93815887451171875000e+02) (13, -7.23004882812500000000e+02) (14, 2.13086059570312500000e+02) (15, 1.07320080566406250000e+03) (16, 7.00638275146484375000e+01) (17, -4.38496826171875000000e+02) 
