FANN_FIX_2.0
decimal_point=8
num_layers=3
learning_rate=0.700000
connection_rate=1.000000
shortcut_connections=0
learning_momentum=0.000000
training_algorithm=2
train_error_function=1
train_stop_function=1
cascade_output_change_fraction=0.010000
quickprop_decay=-0.000100
quickprop_mu=1.750000
rprop_increase_factor=1.200000
rprop_decrease_factor=0.500000
rprop_delta_min=0.000000
rprop_delta_max=50.000000
rprop_delta_zero=0.500000
cascade_output_stagnation_epochs=12
cascade_candidate_change_fraction=0.010000
cascade_candidate_stagnation_epochs=12
cascade_max_out_epochs=150
cascade_max_cand_epochs=150
cascade_num_candidate_groups=2
bit_fail_limit=3
cascade_candidate_limit=256000
cascade_weight_multiplier=102
cascade_activation_functions_count=6
cascade_activation_functions=3 5 7 8 10 11 
cascade_activation_steepnesses_count=4
cascade_activation_steepnesses=64 128 192 256 
layer_sizes=4 14 9 
neurons (num_inputs, activation_function, activation_steepness)=(0, 0, 0) (0, 0, 0) (0, 0, 0) (0, 0, 0) (4, 5, 3) (4, 5, 3) (4, 5, 3) (4, 5, 3) (4, 5, 3) (4, 5, 3) (4, 5, 3) (4, 5, 3) (4, 5, 3) (4, 5, 3) (4, 5, 3) (4, 5, 3) (4, 5, 3) (0, 5, 3) (14, 5, 3) (14, 5, 3) (14, 5, 3) (14, 5, 3) (14, 5, 3) (14, 5, 3) (14, 5, 3) (14, 5, 3) (0, 5, 3) 
connections (connected_to_neuron, weight)=(0, 69222) (1, -113744) (2, -222366) (3, -35850) (0, 375940) (1, 51458) (2, -354848) (3, -268989) (0, 53293) (1, -590782) (2, -277606) (3, 134988) (0, -284069) (1, 327139) (2, 2282080) (3, 204788) (0, -60745) (1, 200450) (2, 1122040) (3, -19958) (0, 143759) (1, -150895) (2, 813298) (3, -93547) (0, -91719) (1, 52724) (2, 2778166) (3, 9463) (0, -94567) (1, -63367) (2, 246871) (3, 69386) (0, -98159) (1, -235917) (2, 204707) (3, 107802) (0, -106713) (1, -213727) (2, 107777) (3, 104711) (0, 118668) (1, -57047) (2, -3291407) (3, -23769) (0, 499223) (1, 199503) (2, -259411) (3, -409637) (0, 65150) (1, -325759) (2, 1481130) (3, -23395) (4, 138) (5, 63) (6, -19) (7, 17) (8, -82) (9, -71) (10, 1365) (11, 151) (12, -308) (13, 525) (14, 1233) (15, -5) (16, -20) (17, 369) (4, -27735) (5, 84330) (6, 34398) (7, 51651) (8, 123547) (9, 129596) (10, 51327) (11, 33428) (12, 5911) (13, -6103) (14, 74097) (15, 90203) (16, -5392) (17, 166484) (4, 144) (5, 63) (6, -20) (7, 19) (8, -77) (9, -69) (10, 1354) (11, 154) (12, -324) (13, 556) (14, 1223) (15, -3) (16, -20) (17, 384) (4, 37282) (5, 58788) (6, 5977) (7, 4034) (8, 27545) (9, -37446) (10, 4102) (11, 77712) (12, -207632) (13, 355413) (14, 19432) (15, -39473) (16, 16420) (17, 226782) (4, 72434) (5, -6041) (6, 7119) (7, -35756) (8, 31163) (9, -22439) (10, -26255) (11, 93973) (12, -12005) (13, -50067) (14, -38497) (15, 30014) (16, -27043) (17, 51989) (4, 107209) (5, -27579) (6, -28058) (7, 94977) (8, 46148) (9, 76947) (10, 396798) (11, 17766) (12, -63714) (13, 136849) (14, 456917) (15, 43226) (16, -20190) (17, 26306) (4, 68107) (5, -103974) (6, 4178) (7, 23859) (8, 75950) (9, 20320) (10, -512023) (11, 57958) (12, -179209) (13, 380963) (14, -457805) (15, 122491) (16, -9677) (17, 209970) (4, -56323) (5, -342655) (6, 14383) (7, 1389) (8, -1387) (9, 15613) (10, 35849) (11, -120547) (12, 126417) (13, -185089) (14, 54550) (15, 274739) (16, 17936) (17, -112255) 
